digraph Tree {
node [shape=box, style="filled", color="black"] ;
0 [label="X[512] <= 0.5\nentropy = 2.914\nsamples = 7800\nvalue = [825, 1875, 225, 225, 750, 825, 225, 225, 750, 1875]", fillcolor="#ffffff"] ;
1 [label="entropy = 1.15\nsamples = 1908\nvalue = [25, 1476, 3, 190, 11, 4, 1, 190, 3, 5]", fillcolor="#e9ec6b"] ;
0 -> 1 [labeldistance=2.5, labelangle=45, headlabel="True"] ;
2 [label="X[1008] <= 0.5\nentropy = 2.775\nsamples = 5892\nvalue = [800, 399, 222, 35, 739, 821, 224, 35, 747, 1870]", fillcolor="#fad6dc"] ;
0 -> 2 [labeldistance=2.5, labelangle=-45, headlabel="False"] ;
3 [label="entropy = 1.646\nsamples = 1940\nvalue = [18, 10, 12, 7, 292, 593, 3, 1, 5, 999]", fillcolor="#f7c3cd"] ;
2 -> 3 ;
4 [label="X[18] <= 0.5\nentropy = 2.886\nsamples = 3952\nvalue = [782, 389, 210, 28, 447, 228, 221, 34, 742, 871]", fillcolor="#fef9fa"] ;
2 -> 4 ;
5 [label="entropy = 2.243\nsamples = 921\nvalue = [42, 13, 151, 2, 33, 141, 8, 0, 100, 431]", fillcolor="#f6b7c2"] ;
4 -> 5 ;
6 [label="entropy = 2.799\nsamples = 3031\nvalue = [740, 376, 59, 26, 414, 87, 213, 34, 642, 440]", fillcolor="#fefaf7"] ;
4 -> 6 ;
}